// Auto-generated sparse kernel (527 entries)
// KERNEL_SIZE=26, 22.0% sparsity

#ifndef SPARSE_KERNEL_H
#define SPARSE_KERNEL_H

#define NUM_KERNEL_ENTRIES 527

struct kernel_entry {
    int dy, dx;
    float weight;
};

static const struct kernel_entry sparse_kernel[NUM_KERNEL_ENTRIES] = {{12, 5, 1.9384601109120012e-05f}, {12, 4, 3.474723761072463e-05f},  {12, 3, 5.4069335396139606e-05f},  {12, 2, 7.365318069674008e-05f},  {12, 1, 8.841111249825232e-05f},   {12, 0, 9.391482587864359e-05f},   {12, -1, 8.841111249825232e-05f},   {12, -2, 7.365318069674008e-05f},  {12, -3, 5.4069335396139606e-05f}, {12, -4, 3.474723761072463e-05f},  {12, -5, 1.9384601109120012e-05f}, {11, 6, 4.2052047160885274e-05f},  {11, 5, 8.320956579237687e-05f},  {11, 4, 0.000142315846788072f},   {11, 3, 0.00021286115664355813f}, {11, 2, 0.00028135471687946366f}, {11, 1, 0.0003314113711331092f},  {11, 0, 0.0003497828927830558f},   {11, -1, 0.0003314113711331092f},  {11, -2, 0.00028135471687946366f}, {11, -3, 0.00021286115664355813f}, {11, -4, 0.000142315846788072f},    {11, -5, 8.320956579237687e-05f},   {11, -6, 4.2052047160885274e-05f}, {10, 8, 2.6862788486174564e-05f},   {10, 7, 6.927004699941726e-05f},   {10, 6, 0.00015086502116292165f}, {10, 5, 0.00028135471687946366f},   {10, 4, 0.0004558555129032104f},   {10, 3, 0.0006509812991731323f},    {10, 2, 0.0008303195809882356f},   {10, 1, 0.0009562479123495681f},    {10, 0, 0.0010014980110749166f},    {10, -1, 0.0009562479123495681f},   {10, -2, 0.0008303195809882356f},   {10, -3, 0.0006509812991731323f},  {10, -4, 0.0004558555129032104f},  {10, -5, 0.00028135471687946366f},  {10, -6, 0.00015086502116292165f}, {10, -7, 6.927004699941726e-05f},  {10, -8, 2.6862788486174564e-05f}, {9, 9, 3.056438904300881e-05f},     {9, 8, 8.841111249825232e-05f},   {9, 7, 0.00021286115664355813f},   {9, 6, 0.00043262450156671166f},   {9, 5, 0.0007541929238111612f},    {9, 4, 0.0011475296205758106f},     {9, 3, 0.0015514852558299282f},    {9, 2, 0.0018960474675199384f},     {9, 1, 0.0021247083287711183f},   {9, 0, 0.0022043915400958695f},    {9, -1, 0.0021247083287711183f},    {9, -2, 0.0018960474675199384f},
                                                                      {9, -3, 0.0015514852558299282f},  {9, -4, 0.0011475296205758106f},  {9, -5, 0.0007541929238111612f},   {9, -6, 0.00043262450156671166f}, {9, -7, 0.00021286115664355813f},  {9, -8, 8.841111249825232e-05f},   {9, -9, 3.056438904300881e-05f},    {8, 10, 2.6862788486174564e-05f},  {8, 9, 8.841111249825232e-05f},    {8, 8, 0.00023820208875726195f},   {8, 7, 0.000532201825807503f},     {8, 6, 0.0010014980110749166f},    {8, 5, 0.001616656456657503f},    {8, 4, 0.002285722740530448f},    {8, 3, 0.002894783318812945f},    {8, 2, 0.0033579325061017023f},   {8, 1, 0.0036377026569748097f},   {8, 0, 0.0037300486707277313f},    {8, -1, 0.0036377026569748097f},   {8, -2, 0.0033579325061017023f},   {8, -3, 0.002894783318812945f},    {8, -4, 0.002285722740530448f},     {8, -5, 0.001616656456657503f},     {8, -6, 0.0010014980110749166f},   {8, -7, 0.000532201825807503f},     {8, -8, 0.00023820208875726195f},  {8, -9, 8.841111249825232e-05f},  {8, -10, 2.6862788486174564e-05f},  {7, 10, 6.927004699941726e-05f},   {7, 9, 0.00021286115664355813f},    {7, 8, 0.000532201825807503f},     {7, 7, 0.001097108674303977f},      {7, 6, 0.0018960474675199384f},     {7, 5, 0.0028041844029966447f},     {7, 4, 0.0036377026569748097f},     {7, 3, 0.004257055854978541f},     {7, 2, 0.004628610556212854f},     {7, 1, 0.004803751428621923f},      {7, 0, 0.004852073602054047f},     {7, -1, 0.004803751428621923f},    {7, -2, 0.004628610556212854f},    {7, -3, 0.004257055854978541f},     {7, -4, 0.0036377026569748097f},  {7, -5, 0.0028041844029966447f},   {7, -6, 0.0018960474675199384f},   {7, -7, 0.001097108674303977f},    {7, -8, 0.000532201825807503f},     {7, -9, 0.00021286115664355813f},  {7, -10, 6.927004699941726e-05f},   {6, 11, 4.2052047160885274e-05f}, {6, 10, 0.00015086502116292165f},  {6, 9, 0.00043262450156671166f},    {6, 8, 0.0010014980110749166f},
                                                                      {6, 7, 0.0018960474675199384f},   {6, 6, 0.0029862624214863063f},   {6, 5, 0.004000978960146733f},     {6, 4, 0.004691666755320521f},    {6, 3, 0.004985726951420034f},     {6, 2, 0.004993973188160266f},     {6, 1, 0.004900749398901519f},      {6, 0, 0.004852073602054047f},     {6, -1, 0.004900749398901519f},    {6, -2, 0.004993973188160266f},    {6, -3, 0.004985726951420034f},    {6, -4, 0.004691666755320521f},    {6, -5, 0.004000978960146733f},   {6, -6, 0.0029862624214863063f},  {6, -7, 0.0018960474675199384f},  {6, -8, 0.0010014980110749166f},  {6, -9, 0.00043262450156671166f}, {6, -10, 0.00015086502116292165f}, {6, -11, 4.2052047160885274e-05f}, {5, 12, 1.9384601109120012e-05f},  {5, 11, 8.320956579237687e-05f},   {5, 10, 0.00028135471687946366f},   {5, 9, 0.0007541929238111612f},     {5, 8, 0.001616656456657503f},     {5, 7, 0.0028041844029966447f},     {5, 6, 0.004000978960146733f},     {5, 5, 0.004803751428621923f},    {5, 4, 0.005008043025114754f},      {5, 3, 0.004727610611977837f},     {5, 2, 0.004258227121517401f},      {5, 1, 0.0038736335510849407f},    {5, 0, 0.003730048670727732f},      {5, -1, 0.0038736335510849407f},    {5, -2, 0.004258227121517401f},     {5, -3, 0.004727610611977837f},     {5, -4, 0.005008043025114754f},    {5, -5, 0.004803751428621923f},    {5, -6, 0.004000978960146733f},     {5, -7, 0.0028041844029966447f},   {5, -8, 0.001616656456657503f},    {5, -9, 0.0007541929238111612f},   {5, -10, 0.00028135471687946366f},  {5, -11, 8.320956579237687e-05f}, {5, -12, 1.9384601109120012e-05f}, {4, 12, 3.474723761072463e-05f},   {4, 11, 0.000142315846788072f},    {4, 10, 0.0004558555129032104f},    {4, 9, 0.0011475296205758106f},    {4, 8, 0.002285722740530448f},      {4, 7, 0.0036377026569748097f},   {4, 6, 0.004691666755320521f},     {4, 5, 0.005008043025114754f},      {4, 4, 0.004566750878940703f},
                                                                      {4, 3, 0.003730048670727732f},    {4, 2, 0.0029199070310487194f},   {4, 1, 0.0023854697210242202f},    {4, 0, 0.0022043915400958695f},   {4, -1, 0.0023854697210242202f},   {4, -2, 0.0029199070310487194f},   {4, -3, 0.003730048670727732f},     {4, -4, 0.004566750878940703f},    {4, -5, 0.005008043025114754f},    {4, -6, 0.004691666755320521f},    {4, -7, 0.0036377026569748097f},   {4, -8, 0.002285722740530448f},    {4, -9, 0.0011475296205758106f},  {4, -10, 0.0004558555129032104f}, {4, -11, 0.000142315846788072f},  {4, -12, 3.474723761072463e-05f}, {3, 12, 5.4069335396139606e-05f}, {3, 11, 0.00021286115664355813f},  {3, 10, 0.0006509812991731323f},   {3, 9, 0.0015514852558299282f},    {3, 8, 0.002894783318812945f},     {3, 7, 0.004257055854978541f},      {3, 6, 0.004985726951420034f},      {3, 5, 0.004727610611977837f},     {3, 4, 0.003730048670727732f},      {3, 3, 0.0025657146408809006f},    {3, 2, 0.0016663865153466522f},   {3, 1, 0.001158819901132473f},      {3, 0, 0.001001498011074917f},     {3, -1, 0.001158819901132473f},     {3, -2, 0.0016663865153466522f},   {3, -3, 0.0025657146408809006f},    {3, -4, 0.003730048670727732f},     {3, -5, 0.004727610611977837f},     {3, -6, 0.004985726951420034f},     {3, -7, 0.004257055854978541f},    {3, -8, 0.002894783318812945f},    {3, -9, 0.0015514852558299282f},    {3, -10, 0.0006509812991731323f},  {3, -11, 0.00021286115664355813f}, {3, -12, 5.4069335396139606e-05f}, {2, 12, 7.365318069674008e-05f},    {2, 11, 0.00028135471687946366f}, {2, 10, 0.0008303195809882356f},   {2, 9, 0.0018960474675199384f},    {2, 8, 0.0033579325061017023f},    {2, 7, 0.004628610556212854f},      {2, 6, 0.004993973188160266f},     {2, 5, 0.004258227121517401f},      {2, 4, 0.0029199070310487194f},   {2, 3, 0.0016663865153466522f},    {2, 2, 0.0008518901972838721f},     {2, 1, 0.0004591400212677029f},
                                                                      {2, 0, 0.0003497828927830558f},   {2, -1, 0.0004591400212677029f},  {2, -2, 0.0008518901972838721f},   {2, -3, 0.0016663865153466522f},  {2, -4, 0.0029199070310487194f},   {2, -5, 0.004258227121517401f},    {2, -6, 0.004993973188160266f},     {2, -7, 0.004628610556212854f},    {2, -8, 0.0033579325061017023f},   {2, -9, 0.0018960474675199384f},   {2, -10, 0.0008303195809882356f},  {2, -11, 0.00028135471687946366f}, {2, -12, 7.365318069674008e-05f}, {1, 12, 8.841111249825232e-05f},  {1, 11, 0.0003314113711331092f},  {1, 10, 0.0009562479123495681f},  {1, 9, 0.0021247083287711183f},   {1, 8, 0.0036377026569748097f},    {1, 7, 0.004803751428621923f},     {1, 6, 0.004900749398901519f},     {1, 5, 0.0038736335510849407f},    {1, 4, 0.0023854697210242202f},     {1, 3, 0.001158819901132473f},      {1, 2, 0.0004591400212677029f},    {1, 1, 0.0001671602939754858f},     {1, 0, 9.391482587864371e-05f},    {1, -1, 0.0001671602939754858f},  {1, -2, 0.0004591400212677029f},    {1, -3, 0.001158819901132473f},    {1, -4, 0.0023854697210242202f},    {1, -5, 0.0038736335510849407f},   {1, -6, 0.004900749398901519f},     {1, -7, 0.004803751428621923f},     {1, -8, 0.0036377026569748097f},    {1, -9, 0.0021247083287711183f},    {1, -10, 0.0009562479123495681f},  {1, -11, 0.0003314113711331092f},  {1, -12, 8.841111249825232e-05f},   {0, 12, 9.391482587864359e-05f},   {0, 11, 0.0003497828927830558f},   {0, 10, 0.0010014980110749166f},   {0, 9, 0.0022043915400958695f},     {0, 8, 0.0037300486707277313f},   {0, 7, 0.004852073602054047f},     {0, 6, 0.004852073602054047f},     {0, 5, 0.003730048670727732f},     {0, 4, 0.0022043915400958695f},     {0, 3, 0.001001498011074917f},     {0, 2, 0.0003497828927830558f},     {0, 1, 9.391482587864371e-05f},   {0, 0, 1.9384601109120012e-05f},   {0, -1, 9.391482587864371e-05f},    {0, -2, 0.0003497828927830558f},
                                                                      {0, -3, 0.001001498011074917f},   {0, -4, 0.0022043915400958695f},  {0, -5, 0.003730048670727732f},    {0, -6, 0.004852073602054047f},   {0, -7, 0.004852073602054047f},    {0, -8, 0.0037300486707277313f},   {0, -9, 0.0022043915400958695f},    {0, -10, 0.0010014980110749166f},  {0, -11, 0.0003497828927830558f},  {0, -12, 9.391482587864359e-05f},  {0, -13, 1.9384601109120012e-05f}, {-1, 12, 8.841111249825232e-05f},  {-1, 11, 0.0003314113711331092f}, {-1, 10, 0.0009562479123495681f}, {-1, 9, 0.0021247083287711183f},  {-1, 8, 0.0036377026569748097f},  {-1, 7, 0.004803751428621923f},   {-1, 6, 0.004900749398901519f},    {-1, 5, 0.0038736335510849407f},   {-1, 4, 0.0023854697210242202f},   {-1, 3, 0.001158819901132473f},    {-1, 2, 0.0004591400212677029f},    {-1, 1, 0.0001671602939754858f},    {-1, 0, 9.391482587864371e-05f},   {-1, -1, 0.0001671602939754858f},   {-1, -2, 0.0004591400212677029f},  {-1, -3, 0.001158819901132473f},  {-1, -4, 0.0023854697210242202f},   {-1, -5, 0.0038736335510849407f},  {-1, -6, 0.004900749398901519f},    {-1, -7, 0.004803751428621923f},   {-1, -8, 0.0036377026569748097f},   {-1, -9, 0.0021247083287711183f},   {-1, -10, 0.0009562479123495681f},  {-1, -11, 0.0003314113711331092f},  {-1, -12, 8.841111249825232e-05f}, {-2, 12, 7.365318069674008e-05f},  {-2, 11, 0.00028135471687946366f},  {-2, 10, 0.0008303195809882356f},  {-2, 9, 0.0018960474675199384f},   {-2, 8, 0.0033579325061017023f},   {-2, 7, 0.004628610556212854f},     {-2, 6, 0.004993973188160266f},   {-2, 5, 0.004258227121517401f},    {-2, 4, 0.0029199070310487194f},   {-2, 3, 0.0016663865153466522f},   {-2, 2, 0.0008518901972838721f},    {-2, 1, 0.0004591400212677029f},   {-2, 0, 0.0003497828927830558f},    {-2, -1, 0.0004591400212677029f}, {-2, -2, 0.0008518901972838721f},  {-2, -3, 0.0016663865153466522f},   {-2, -4, 0.0029199070310487194f},
                                                                      {-2, -5, 0.004258227121517401f},  {-2, -6, 0.004993973188160266f},  {-2, -7, 0.004628610556212854f},   {-2, -8, 0.0033579325061017023f}, {-2, -9, 0.0018960474675199384f},  {-2, -10, 0.0008303195809882356f}, {-2, -11, 0.00028135471687946366f}, {-2, -12, 7.365318069674008e-05f}, {-3, 12, 5.4069335396139606e-05f}, {-3, 11, 0.00021286115664355813f}, {-3, 10, 0.0006509812991731323f},  {-3, 9, 0.0015514852558299282f},   {-3, 8, 0.002894783318812945f},   {-3, 7, 0.004257055854978541f},   {-3, 6, 0.004985726951420034f},   {-3, 5, 0.004727610611977837f},   {-3, 4, 0.003730048670727732f},   {-3, 3, 0.0025657146408809006f},   {-3, 2, 0.0016663865153466522f},   {-3, 1, 0.001158819901132473f},    {-3, 0, 0.001001498011074917f},    {-3, -1, 0.001158819901132473f},    {-3, -2, 0.0016663865153466522f},   {-3, -3, 0.0025657146408809006f},  {-3, -4, 0.003730048670727732f},    {-3, -5, 0.004727610611977837f},   {-3, -6, 0.004985726951420034f},  {-3, -7, 0.004257055854978541f},    {-3, -8, 0.002894783318812945f},   {-3, -9, 0.0015514852558299282f},   {-3, -10, 0.0006509812991731323f}, {-3, -11, 0.00021286115664355813f}, {-3, -12, 5.4069335396139606e-05f}, {-4, 12, 3.474723761072463e-05f},   {-4, 11, 0.000142315846788072f},    {-4, 10, 0.0004558555129032104f},  {-4, 9, 0.0011475296205758106f},   {-4, 8, 0.002285722740530448f},     {-4, 7, 0.0036377026569748097f},   {-4, 6, 0.004691666755320521f},    {-4, 5, 0.005008043025114754f},    {-4, 4, 0.004566750878940703f},     {-4, 3, 0.003730048670727732f},   {-4, 2, 0.0029199070310487194f},   {-4, 1, 0.0023854697210242202f},   {-4, 0, 0.0022043915400958695f},   {-4, -1, 0.0023854697210242202f},   {-4, -2, 0.0029199070310487194f},  {-4, -3, 0.003730048670727732f},    {-4, -4, 0.004566750878940703f},  {-4, -5, 0.005008043025114754f},   {-4, -6, 0.004691666755320521f},    {-4, -7, 0.0036377026569748097f},
                                                                      {-4, -8, 0.002285722740530448f},  {-4, -9, 0.0011475296205758106f}, {-4, -10, 0.0004558555129032104f}, {-4, -11, 0.000142315846788072f}, {-4, -12, 3.474723761072463e-05f}, {-5, 12, 1.9384601109120012e-05f}, {-5, 11, 8.320956579237687e-05f},   {-5, 10, 0.00028135471687946366f}, {-5, 9, 0.0007541929238111612f},   {-5, 8, 0.001616656456657503f},    {-5, 7, 0.0028041844029966447f},   {-5, 6, 0.004000978960146733f},    {-5, 5, 0.004803751428621923f},   {-5, 4, 0.005008043025114754f},   {-5, 3, 0.004727610611977837f},   {-5, 2, 0.004258227121517401f},   {-5, 1, 0.0038736335510849407f},  {-5, 0, 0.003730048670727732f},    {-5, -1, 0.0038736335510849407f},  {-5, -2, 0.004258227121517401f},   {-5, -3, 0.004727610611977837f},   {-5, -4, 0.005008043025114754f},    {-5, -5, 0.004803751428621923f},    {-5, -6, 0.004000978960146733f},   {-5, -7, 0.0028041844029966447f},   {-5, -8, 0.001616656456657503f},   {-5, -9, 0.0007541929238111612f}, {-5, -10, 0.00028135471687946366f}, {-5, -11, 8.320956579237687e-05f}, {-5, -12, 1.9384601109120012e-05f}, {-6, 11, 4.2052047160885274e-05f}, {-6, 10, 0.00015086502116292165f},  {-6, 9, 0.00043262450156671166f},   {-6, 8, 0.0010014980110749166f},    {-6, 7, 0.0018960474675199384f},    {-6, 6, 0.0029862624214863063f},   {-6, 5, 0.004000978960146733f},    {-6, 4, 0.004691666755320521f},     {-6, 3, 0.004985726951420034f},    {-6, 2, 0.004993973188160266f},    {-6, 1, 0.004900749398901519f},    {-6, 0, 0.004852073602054047f},     {-6, -1, 0.004900749398901519f},  {-6, -2, 0.004993973188160266f},   {-6, -3, 0.004985726951420034f},   {-6, -4, 0.004691666755320521f},   {-6, -5, 0.004000978960146733f},    {-6, -6, 0.0029862624214863063f},  {-6, -7, 0.0018960474675199384f},   {-6, -8, 0.0010014980110749166f}, {-6, -9, 0.00043262450156671166f}, {-6, -10, 0.00015086502116292165f}, {-6, -11, 4.2052047160885274e-05f},
                                                                      {-7, 10, 6.927004699941726e-05f}, {-7, 9, 0.00021286115664355813f}, {-7, 8, 0.000532201825807503f},    {-7, 7, 0.001097108674303977f},   {-7, 6, 0.0018960474675199384f},   {-7, 5, 0.0028041844029966447f},   {-7, 4, 0.0036377026569748097f},    {-7, 3, 0.004257055854978541f},    {-7, 2, 0.004628610556212854f},    {-7, 1, 0.004803751428621923f},    {-7, 0, 0.004852073602054047f},    {-7, -1, 0.004803751428621923f},   {-7, -2, 0.004628610556212854f},  {-7, -3, 0.004257055854978541f},  {-7, -4, 0.0036377026569748097f}, {-7, -5, 0.0028041844029966447f}, {-7, -6, 0.0018960474675199384f}, {-7, -7, 0.001097108674303977f},   {-7, -8, 0.000532201825807503f},   {-7, -9, 0.00021286115664355813f}, {-7, -10, 6.927004699941726e-05f}, {-8, 10, 2.6862788486174564e-05f},  {-8, 9, 8.841111249825232e-05f},    {-8, 8, 0.00023820208875726195f},  {-8, 7, 0.000532201825807503f},     {-8, 6, 0.0010014980110749166f},   {-8, 5, 0.001616656456657503f},   {-8, 4, 0.002285722740530448f},     {-8, 3, 0.002894783318812945f},    {-8, 2, 0.0033579325061017023f},    {-8, 1, 0.0036377026569748097f},   {-8, 0, 0.0037300486707277313f},    {-8, -1, 0.0036377026569748097f},   {-8, -2, 0.0033579325061017023f},   {-8, -3, 0.002894783318812945f},    {-8, -4, 0.002285722740530448f},   {-8, -5, 0.001616656456657503f},   {-8, -6, 0.0010014980110749166f},   {-8, -7, 0.000532201825807503f},   {-8, -8, 0.00023820208875726195f}, {-8, -9, 8.841111249825232e-05f},  {-8, -10, 2.6862788486174564e-05f}, {-9, 9, 3.056438904300881e-05f},  {-9, 8, 8.841111249825232e-05f},   {-9, 7, 0.00021286115664355813f},  {-9, 6, 0.00043262450156671166f},  {-9, 5, 0.0007541929238111612f},    {-9, 4, 0.0011475296205758106f},   {-9, 3, 0.0015514852558299282f},    {-9, 2, 0.0018960474675199384f},  {-9, 1, 0.0021247083287711183f},   {-9, 0, 0.0022043915400958695f},    {-9, -1, 0.0021247083287711183f},
                                                                      {-9, -2, 0.0018960474675199384f}, {-9, -3, 0.0015514852558299282f}, {-9, -4, 0.0011475296205758106f},  {-9, -5, 0.0007541929238111612f}, {-9, -6, 0.00043262450156671166f}, {-9, -7, 0.00021286115664355813f}, {-9, -8, 8.841111249825232e-05f},   {-9, -9, 3.056438904300881e-05f},  {-10, 8, 2.6862788486174564e-05f}, {-10, 7, 6.927004699941726e-05f},  {-10, 6, 0.00015086502116292165f}, {-10, 5, 0.00028135471687946366f}, {-10, 4, 0.0004558555129032104f}, {-10, 3, 0.0006509812991731323f}, {-10, 2, 0.0008303195809882356f}, {-10, 1, 0.0009562479123495681f}, {-10, 0, 0.0010014980110749166f}, {-10, -1, 0.0009562479123495681f}, {-10, -2, 0.0008303195809882356f}, {-10, -3, 0.0006509812991731323f}, {-10, -4, 0.0004558555129032104f}, {-10, -5, 0.00028135471687946366f}, {-10, -6, 0.00015086502116292165f}, {-10, -7, 6.927004699941726e-05f}, {-10, -8, 2.6862788486174564e-05f}, {-11, 6, 4.2052047160885274e-05f}, {-11, 5, 8.320956579237687e-05f}, {-11, 4, 0.000142315846788072f},    {-11, 3, 0.00021286115664355813f}, {-11, 2, 0.00028135471687946366f},  {-11, 1, 0.0003314113711331092f},  {-11, 0, 0.0003497828927830558f},   {-11, -1, 0.0003314113711331092f},  {-11, -2, 0.00028135471687946366f}, {-11, -3, 0.00021286115664355813f}, {-11, -4, 0.000142315846788072f},  {-11, -5, 8.320956579237687e-05f}, {-11, -6, 4.2052047160885274e-05f}, {-12, 5, 1.9384601109120012e-05f}, {-12, 4, 3.474723761072463e-05f},  {-12, 3, 5.4069335396139606e-05f}, {-12, 2, 7.365318069674008e-05f},   {-12, 1, 8.841111249825232e-05f}, {-12, 0, 9.391482587864359e-05f},  {-12, -1, 8.841111249825232e-05f}, {-12, -2, 7.365318069674008e-05f}, {-12, -3, 5.4069335396139606e-05f}, {-12, -4, 3.474723761072463e-05f}, {-12, -5, 1.9384601109120012e-05f}, {-13, 0, 1.9384601109120012e-05f}};

#ifdef __CUDACC__
__constant__ struct kernel_entry d_sparse_k[NUM_KERNEL_ENTRIES];
inline void init_kernel_const() {
    cudaMemcpyToSymbol(d_sparse_k, sparse_kernel, sizeof(sparse_kernel), 0, cudaMemcpyHostToDevice);
}
#endif

#endif  // SPARSE_KERNEL_H
